<?xml version="1.0"?>
<opencv_storage>
<stage15>
  <maxWeakCount>6</maxWeakCount>
  <stageThreshold>-1.2605743408203125e+00</stageThreshold>
  <weakClassifiers>
    <_>
      <internalNodes>
        0 -1 226439 -9.2317834496498108e-03</internalNodes>
      <leafValues>
        1. -8.7376016378402710e-01</leafValues></_>
    <_>
      <internalNodes>
        0 -1 101003 -3.7662703543901443e-02</internalNodes>
      <leafValues>
        1. -6.0176885128021240e-01</leafValues></_>
    <_>
      <internalNodes>
        0 -1 39666 -1.0442490130662918e-01</internalNodes>
      <leafValues>
        7.8145176172256470e-01 -3.4251785278320312e-01</leafValues></_>
    <_>
      <internalNodes>
        0 -1 108780 -5.9564108960330486e-03</internalNodes>
      <leafValues>
        -6.8473947048187256e-01 3.7897950410842896e-01</leafValues></_>
    <_>
      <internalNodes>
        0 -1 142820 1.5342421829700470e-03</internalNodes>
      <leafValues>
        -2.7367997169494629e-01 9.4569510221481323e-01</leafValues></_>
    <_>
      <internalNodes>
        0 -1 256372 -1.9851943943649530e-04</internalNodes>
      <leafValues>
        -5.7255578041076660e-01 4.5217296481132507e-01</leafValues></_></weakClassifiers></stage15>
</opencv_storage>
