<?xml version="1.0"?>
<opencv_storage>
<stage8>
  <maxWeakCount>10</maxWeakCount>
  <stageThreshold>-1.6284354925155640e+00</stageThreshold>
  <weakClassifiers>
    <_>
      <internalNodes>
        0 -1 248041 -2.3516312241554260e-02</internalNodes>
      <leafValues>
        2.4324324727058411e-01 -8.3691757917404175e-01</leafValues></_>
    <_>
      <internalNodes>
        0 -1 68458 2.4479262530803680e-02</internalNodes>
      <leafValues>
        -5.4608201980590820e-01 1.9044204056262970e-01</leafValues></_>
    <_>
      <internalNodes>
        0 -1 10270 -2.8766602277755737e-01</internalNodes>
      <leafValues>
        2.5822758674621582e-01 -4.4572710990905762e-01</leafValues></_>
    <_>
      <internalNodes>
        0 -1 40967 -7.5478269718587399e-04</internalNodes>
      <leafValues>
        2.0989759266376495e-01 -5.8404725790023804e-01</leafValues></_>
    <_>
      <internalNodes>
        0 -1 259153 -1.9889310351572931e-04</internalNodes>
      <leafValues>
        -5.7624685764312744e-01 2.2378762066364288e-01</leafValues></_>
    <_>
      <internalNodes>
        0 -1 243634 1.2287104036659002e-03</internalNodes>
      <leafValues>
        -2.1045531332492828e-01 6.2509357929229736e-01</leafValues></_>
    <_>
      <internalNodes>
        0 -1 260945 3.7400017026811838e-04</internalNodes>
      <leafValues>
        1.8945299088954926e-01 -7.1790993213653564e-01</leafValues></_>
    <_>
      <internalNodes>
        0 -1 75815 -5.8635342866182327e-03</internalNodes>
      <leafValues>
        6.1159992218017578e-01 -2.2940151393413544e-01</leafValues></_>
    <_>
      <internalNodes>
        0 -1 67223 -3.6289310082793236e-03</internalNodes>
      <leafValues>
        3.7844425439834595e-01 -3.7721771001815796e-01</leafValues></_>
    <_>
      <internalNodes>
        0 -1 96247 9.9383285269141197e-03</internalNodes>
      <leafValues>
        -2.5870326161384583e-01 4.9030727148056030e-01</leafValues></_></weakClassifiers></stage8>
</opencv_storage>
