<?xml version="1.0"?>
<opencv_storage>
<stage12>
  <maxWeakCount>10</maxWeakCount>
  <stageThreshold>-1.6717208623886108e+00</stageThreshold>
  <weakClassifiers>
    <_>
      <internalNodes>
        0 -1 81658 -3.0167154967784882e-02</internalNodes>
      <leafValues>
        1. -8.1802272796630859e-01</leafValues></_>
    <_>
      <internalNodes>
        0 -1 13579 7.7875629067420959e-03</internalNodes>
      <leafValues>
        -5.7580661773681641e-01 8.7043024599552155e-02</leafValues></_>
    <_>
      <internalNodes>
        0 -1 14472 2.4472456425428391e-04</internalNodes>
      <leafValues>
        2.0596392452716827e-01 -5.1412832736968994e-01</leafValues></_>
    <_>
      <internalNodes>
        0 -1 120211 2.8331130743026733e-03</internalNodes>
      <leafValues>
        1.3483212888240814e-01 -7.5931894779205322e-01</leafValues></_>
    <_>
      <internalNodes>
        0 -1 203936 4.4528758153319359e-03</internalNodes>
      <leafValues>
        -2.1464325487613678e-01 5.2262330055236816e-01</leafValues></_>
    <_>
      <internalNodes>
        0 -1 214171 -1.9689011387526989e-03</internalNodes>
      <leafValues>
        4.6194109320640564e-01 -2.7564552426338196e-01</leafValues></_>
    <_>
      <internalNodes>
        0 -1 64008 1.4491424895823002e-02</internalNodes>
      <leafValues>
        -2.1350903809070587e-01 5.4932630062103271e-01</leafValues></_>
    <_>
      <internalNodes>
        0 -1 34929 1.5428143739700317e-01</internalNodes>
      <leafValues>
        1.7913167178630829e-01 -7.8486359119415283e-01</leafValues></_>
    <_>
      <internalNodes>
        0 -1 47604 1.6061924397945404e-03</internalNodes>
      <leafValues>
        9.2140130698680878e-02 -9.5017570257186890e-01</leafValues></_>
    <_>
      <internalNodes>
        0 -1 82410 -9.3709938228130341e-03</internalNodes>
      <leafValues>
        -8.8332635164260864e-01 9.7809746861457825e-02</leafValues></_></weakClassifiers></stage12>
</opencv_storage>
