<?xml version="1.0"?>
<opencv_storage>
<stage10>
  <maxWeakCount>7</maxWeakCount>
  <stageThreshold>-1.5802819728851318e+00</stageThreshold>
  <weakClassifiers>
    <_>
      <internalNodes>
        0 -1 65118 -7.6521031558513641e-02</internalNodes>
      <leafValues>
        7.3333334922790527e-01 -8.2249557971954346e-01</leafValues></_>
    <_>
      <internalNodes>
        0 -1 237242 -3.2524787820875645e-03</internalNodes>
      <leafValues>
        3.2691675424575806e-01 -5.1373004913330078e-01</leafValues></_>
    <_>
      <internalNodes>
        0 -1 7957 -2.4881891906261444e-02</internalNodes>
      <leafValues>
        3.2131448388099670e-01 -3.5115236043930054e-01</leafValues></_>
    <_>
      <internalNodes>
        0 -1 82701 3.4197994973510504e-03</internalNodes>
      <leafValues>
        -1.8982103466987610e-01 6.3048076629638672e-01</leafValues></_>
    <_>
      <internalNodes>
        0 -1 178851 1.1526217713253573e-04</internalNodes>
      <leafValues>
        2.1946336328983307e-01 -6.3286966085433960e-01</leafValues></_>
    <_>
      <internalNodes>
        0 -1 84059 -8.4403660148382187e-03</internalNodes>
      <leafValues>
        3.9006119966506958e-01 -3.6086556315422058e-01</leafValues></_>
    <_>
      <internalNodes>
        0 -1 126816 1.0523323900997639e-02</internalNodes>
      <leafValues>
        -2.2246137261390686e-01 6.8581092357635498e-01</leafValues></_></weakClassifiers></stage10>
</opencv_storage>
