<?xml version="1.0"?>
<opencv_storage>
<stage0>
  <maxWeakCount>6</maxWeakCount>
  <stageThreshold>-1.6924325227737427e+00</stageThreshold>
  <weakClassifiers>
    <_>
      <internalNodes>
        0 -1 260572 6.2802573665976524e-03</internalNodes>
      <leafValues>
        -8.0276495218276978e-01 7.0886075496673584e-01</leafValues></_>
    <_>
      <internalNodes>
        0 -1 14501 -3.5426015965640545e-03</internalNodes>
      <leafValues>
        7.3401278257369995e-01 -6.4750105142593384e-01</leafValues></_>
    <_>
      <internalNodes>
        0 -1 44761 -2.4929147213697433e-02</internalNodes>
      <leafValues>
        4.5992997288703918e-01 -6.7030608654022217e-01</leafValues></_>
    <_>
      <internalNodes>
        0 -1 16494 -4.6572340652346611e-03</internalNodes>
      <leafValues>
        4.8998564481735229e-01 -6.4408433437347412e-01</leafValues></_>
    <_>
      <internalNodes>
        0 -1 52904 -7.1709286421537399e-03</internalNodes>
      <leafValues>
        6.3019919395446777e-01 -4.6801260113716125e-01</leafValues></_>
    <_>
      <internalNodes>
        0 -1 214565 1.5605951193720102e-03</internalNodes>
      <leafValues>
        -6.5601426362991333e-01 4.1000050306320190e-01</leafValues></_></weakClassifiers></stage0>
</opencv_storage>
