<?xml version="1.0"?>
<opencv_storage>
<stage0>
  <maxWeakCount>6</maxWeakCount>
  <stageThreshold>-1.6980887651443481e+00</stageThreshold>
  <weakClassifiers>
    <_>
      <internalNodes>
        0 -1 260572 6.2802573665976524e-03</internalNodes>
      <leafValues>
        -7.9342722892761230e-01 7.1546393632888794e-01</leafValues></_>
    <_>
      <internalNodes>
        0 -1 14501 -3.5426015965640545e-03</internalNodes>
      <leafValues>
        7.4002277851104736e-01 -6.4452165365219116e-01</leafValues></_>
    <_>
      <internalNodes>
        0 -1 44761 -2.4929147213697433e-02</internalNodes>
      <leafValues>
        4.6477428078651428e-01 -6.4871525764465332e-01</leafValues></_>
    <_>
      <internalNodes>
        0 -1 16494 -4.6572340652346611e-03</internalNodes>
      <leafValues>
        4.8993951082229614e-01 -6.4897257089614868e-01</leafValues></_>
    <_>
      <internalNodes>
        0 -1 69159 -6.6490834578871727e-03</internalNodes>
      <leafValues>
        6.2731480598449707e-01 -4.7861909866333008e-01</leafValues></_>
    <_>
      <internalNodes>
        0 -1 214565 1.5605951193720102e-03</internalNodes>
      <leafValues>
        -6.4758098125457764e-01 4.0267753601074219e-01</leafValues></_></weakClassifiers></stage0>
</opencv_storage>
