<?xml version="1.0"?>
<opencv_storage>
<stage1>
  <maxWeakCount>6</maxWeakCount>
  <stageThreshold>-1.4937901496887207e+00</stageThreshold>
  <weakClassifiers>
    <_>
      <internalNodes>
        0 -1 255971 7.2552943602204323e-03</internalNodes>
      <leafValues>
        -8.1434601545333862e-01 3.8788869976997375e-01</leafValues></_>
    <_>
      <internalNodes>
        0 -1 12423 -6.8657509982585907e-03</internalNodes>
      <leafValues>
        6.2738436460494995e-01 -5.9289890527725220e-01</leafValues></_>
    <_>
      <internalNodes>
        0 -1 158097 -4.3658046051859856e-03</internalNodes>
      <leafValues>
        5.9240251779556274e-01 -3.9478963613510132e-01</leafValues></_>
    <_>
      <internalNodes>
        0 -1 9698 -7.8110858798027039e-02</internalNodes>
      <leafValues>
        4.0093702077865601e-01 -5.8094584941864014e-01</leafValues></_>
    <_>
      <internalNodes>
        0 -1 16552 -9.3711242079734802e-03</internalNodes>
      <leafValues>
        3.6143448948860168e-01 -5.4396194219589233e-01</leafValues></_>
    <_>
      <internalNodes>
        0 -1 161597 7.6148631051182747e-03</internalNodes>
      <leafValues>
        -4.1108351945877075e-01 5.2775579690933228e-01</leafValues></_></weakClassifiers></stage1>
</opencv_storage>
